{
    "network": {
        "noofoutputs": 4, 
        "noofhiddenlayers": 1, 
        "noofneuronsineachlayer": 50, 
        "noofinputs": 24
    }
}{
    "hiddenlayer1": [
        {
            "neurons": [
                {
                    "bias": "2.06212", 
                    "weights": [
                        "0.163122", 
                        "-0.398294", 
                        "0.103817", 
                        "-0.0178507", 
                        "0.36084", 
                        "0.652042", 
                        "0.203873", 
                        "-0.119127", 
                        "-0.392001", 
                        "-0.236951", 
                        "-0.10082", 
                        "-0.914239", 
                        "-0.193276", 
                        "-0.00496488", 
                        "0.665729", 
                        "-0.0599612", 
                        "-2.54538", 
                        "-3.6534", 
                        "-0.140922", 
                        "-0.0325906", 
                        "0.503571", 
                        "-0.309423", 
                        "-0.204302", 
                        "0.775253"
                    ], 
                    "id": 1
                }, 
                {
                    "bias": "-1.42317", 
                    "weights": [
                        "0.248341", 
                        "-0.906482", 
                        "0.882612", 
                        "-0.323658", 
                        "0.439296", 
                        "1.24253", 
                        "0.429517", 
                        "-0.343557", 
                        "1.88267", 
                        "-1.29752", 
                        "-1.00274", 
                        "1.2439", 
                        "-0.35605", 
                        "0.217021", 
                        "-1.67484", 
                        "-1.59706", 
                        "-0.289129", 
                        "1.54519", 
                        "0.299117", 
                        "-1.0952", 
                        "0.319051", 
                        "0.7548", 
                        "0.142919", 
                        "-0.125604"
                    ], 
                    "id": 2
                }, 
                {
                    "bias": "0.150316", 
                    "weights": [
                        "-0.561874", 
                        "-0.393115", 
                        "0.0701309", 
                        "-0.012532", 
                        "-0.0659232", 
                        "-0.516173", 
                        "1.58211", 
                        "0.0685678", 
                        "1.38948", 
                        "-0.153416", 
                        "0.262899", 
                        "-0.146898", 
                        "0.941366", 
                        "0.0882161", 
                        "0.0420505", 
                        "-0.182444", 
                        "1.14123", 
                        "-0.402302", 
                        "1.45243", 
                        "1.04031", 
                        "0.455203", 
                        "-1.14316", 
                        "-0.0385217", 
                        "-0.965833"
                    ], 
                    "id": 3
                }, 
                {
                    "bias": "-0.532457", 
                    "weights": [
                        "0.275962", 
                        "0.878708", 
                        "0.00995494", 
                        "0.0867072", 
                        "-0.803296", 
                        "0.110392", 
                        "0.747177", 
                        "-0.351812", 
                        "1.87281", 
                        "-0.962275", 
                        "1.04709", 
                        "0.919729", 
                        "-0.297298", 
                        "-1.01172", 
                        "0.106981", 
                        "-0.332668", 
                        "-0.206735", 
                        "0.960482", 
                        "-1.2847", 
                        "-1.65824", 
                        "0.261267", 
                        "0.573161", 
                        "-0.0776716", 
                        "-0.387822"
                    ], 
                    "id": 4
                }, 
                {
                    "bias": "-1.99613", 
                    "weights": [
                        "0.294002", 
                        "0.704203", 
                        "0.757552", 
                        "-0.0419598", 
                        "-1.47086", 
                        "0.679507", 
                        "0.568358", 
                        "-0.289215", 
                        "-1.30073", 
                        "-0.654301", 
                        "0.16329", 
                        "0.255215", 
                        "0.766868", 
                        "-0.361102", 
                        "-0.715685", 
                        "1.98255", 
                        "3.08893", 
                        "-1.08171", 
                        "0.300023", 
                        "2.53936", 
                        "0.5039", 
                        "0.129236", 
                        "0.999514", 
                        "0.760256"
                    ], 
                    "id": 5
                }, 
                {
                    "bias": "-1.52899", 
                    "weights": [
                        "-1.32697", 
                        "-0.6857", 
                        "-0.539538", 
                        "-0.575352", 
                        "-1.70792", 
                        "0.36442", 
                        "0.133768", 
                        "0.82749", 
                        "0.602991", 
                        "1.51297", 
                        "2.01992", 
                        "1.1389", 
                        "0.194977", 
                        "0.972976", 
                        "0.544017", 
                        "0.559725", 
                        "1.22557", 
                        "-0.140652", 
                        "-2.11427", 
                        "0.507627", 
                        "-1.28155", 
                        "-0.370129", 
                        "1.21351", 
                        "-0.0181165"
                    ], 
                    "id": 6
                }, 
                {
                    "bias": "1.02472", 
                    "weights": [
                        "0.375217", 
                        "0.295328", 
                        "-0.590449", 
                        "-0.0821271", 
                        "0.545588", 
                        "0.584127", 
                        "-0.176738", 
                        "0.193993", 
                        "0.432519", 
                        "-1.12416", 
                        "0.73095", 
                        "-0.118834", 
                        "0.460161", 
                        "0.783643", 
                        "-1.00131", 
                        "0.045549", 
                        "0.135795", 
                        "0.0396529", 
                        "0.719554", 
                        "-7.41238", 
                        "-0.290197", 
                        "-0.193425", 
                        "0.247368", 
                        "0.279077"
                    ], 
                    "id": 7
                }, 
                {
                    "bias": "0.645717", 
                    "weights": [
                        "0.515484", 
                        "0.945297", 
                        "-1.14766", 
                        "-0.327865", 
                        "0.819326", 
                        "0.252485", 
                        "-0.0861614", 
                        "-0.576441", 
                        "0.443783", 
                        "-0.350614", 
                        "-0.446628", 
                        "-3.19494", 
                        "1.05478", 
                        "-0.0216831", 
                        "0.810267", 
                        "-1.21618", 
                        "0.453618", 
                        "0.203672", 
                        "-0.142777", 
                        "-0.486946", 
                        "0.164902", 
                        "-0.305139", 
                        "0.441233", 
                        "0.451979"
                    ], 
                    "id": 8
                }, 
                {
                    "bias": "-0.197428", 
                    "weights": [
                        "1.8168", 
                        "-0.940034", 
                        "-1.05292", 
                        "-0.0049829", 
                        "-0.274087", 
                        "0.542264", 
                        "-0.366461", 
                        "-0.363835", 
                        "0.266528", 
                        "-0.027348", 
                        "-0.8563", 
                        "-0.843681", 
                        "0.728937", 
                        "4.10163", 
                        "-0.856185", 
                        "-0.0536633", 
                        "1.91974", 
                        "-1.30341", 
                        "-1.71922", 
                        "0.482219", 
                        "0.618471", 
                        "-0.529034", 
                        "1.46595", 
                        "1.3011"
                    ], 
                    "id": 9
                }, 
                {
                    "bias": "0.24209", 
                    "weights": [
                        "0.522708", 
                        "0.417019", 
                        "-1.0178", 
                        "0.703342", 
                        "0.401581", 
                        "-0.58319", 
                        "0.810046", 
                        "-0.048185", 
                        "-0.892849", 
                        "-0.42869", 
                        "0.443631", 
                        "-0.059679", 
                        "0.247397", 
                        "-0.591659", 
                        "-3.5212", 
                        "0.224937", 
                        "-0.229737", 
                        "0.933196", 
                        "-0.311993", 
                        "-1.20958", 
                        "-0.189931", 
                        "0.954103", 
                        "1.0059", 
                        "1.22342"
                    ], 
                    "id": 10
                }, 
                {
                    "bias": "1.64083", 
                    "weights": [
                        "-0.182327", 
                        "0.147585", 
                        "-0.00473646", 
                        "-0.0463565", 
                        "-0.000950275", 
                        "0.0169507", 
                        "-0.0683004", 
                        "0.0787008", 
                        "0.219143", 
                        "0.152848", 
                        "0.15635", 
                        "0.261851", 
                        "0.117757", 
                        "-0.150643", 
                        "-6.30251", 
                        "0.518261", 
                        "0.835194", 
                        "0.265378", 
                        "-0.143838", 
                        "-0.0628296", 
                        "0.391216", 
                        "-0.00572843", 
                        "0.152709", 
                        "-0.179704"
                    ], 
                    "id": 11
                }, 
                {
                    "bias": "1.97863", 
                    "weights": [
                        "0.541254", 
                        "0.84843", 
                        "-0.18831", 
                        "-0.107972", 
                        "-0.204741", 
                        "-0.00710526", 
                        "0.270184", 
                        "-0.250853", 
                        "1.26705", 
                        "-0.50636", 
                        "-0.772132", 
                        "-0.383194", 
                        "-0.0238706", 
                        "-0.202611", 
                        "-3.4222", 
                        "-0.0117796", 
                        "-0.963701", 
                        "-0.0189422", 
                        "0.43134", 
                        "-0.843615", 
                        "-1.03456", 
                        "-0.580232", 
                        "-0.0659013", 
                        "0.940706"
                    ], 
                    "id": 12
                }, 
                {
                    "bias": "1.92591", 
                    "weights": [
                        "-1.72946", 
                        "0.181762", 
                        "0.463534", 
                        "0.714226", 
                        "0.521385", 
                        "-1.11992", 
                        "-0.15466", 
                        "1.48123", 
                        "0.968101", 
                        "0.389918", 
                        "0.143252", 
                        "0.112105", 
                        "0.359401", 
                        "-0.869665", 
                        "0.254198", 
                        "-2.83292", 
                        "-0.865093", 
                        "-0.512133", 
                        "-1.04479", 
                        "-1.60086", 
                        "0.0841125", 
                        "0.279565", 
                        "0.0818683", 
                        "-2.34677"
                    ], 
                    "id": 13
                }, 
                {
                    "bias": "-0.0343278", 
                    "weights": [
                        "0.297088", 
                        "0.137049", 
                        "-0.260524", 
                        "0.154867", 
                        "0.168389", 
                        "-0.467988", 
                        "-0.575334", 
                        "0.399603", 
                        "1.10708", 
                        "0.646637", 
                        "0.503995", 
                        "0.0568645", 
                        "0.160221", 
                        "-0.0627567", 
                        "-0.17439", 
                        "0.328393", 
                        "-0.0861145", 
                        "0.408556", 
                        "-7.1733", 
                        "0.48142", 
                        "0.852857", 
                        "0.0433069", 
                        "-0.121209", 
                        "-0.0399953"
                    ], 
                    "id": 14
                }, 
                {
                    "bias": "-0.875381", 
                    "weights": [
                        "-0.30888", 
                        "0.125067", 
                        "-0.702416", 
                        "0.0608752", 
                        "-0.189507", 
                        "-0.0311434", 
                        "-0.206692", 
                        "-0.304999", 
                        "-0.264027", 
                        "1.19353", 
                        "0.159007", 
                        "1.4707", 
                        "-0.0360595", 
                        "5.42607", 
                        "-1.24424", 
                        "0.781288", 
                        "0.661212", 
                        "-0.374035", 
                        "0.795206", 
                        "-0.223432", 
                        "0.179036", 
                        "-0.575847", 
                        "0.47437", 
                        "-1.52144"
                    ], 
                    "id": 15
                }, 
                {
                    "bias": "1.59885", 
                    "weights": [
                        "-0.135799", 
                        "-0.4663", 
                        "0.279367", 
                        "-0.0588014", 
                        "0.490135", 
                        "0.403059", 
                        "0.175651", 
                        "0.210467", 
                        "0.173409", 
                        "-0.0949864", 
                        "-0.107886", 
                        "0.547137", 
                        "-0.398644", 
                        "-0.0234186", 
                        "-5.56222", 
                        "0.245554", 
                        "0.443207", 
                        "0.241852", 
                        "0.233268", 
                        "-0.563674", 
                        "-0.0560647", 
                        "-0.106212", 
                        "0.275691", 
                        "-0.413937"
                    ], 
                    "id": 16
                }, 
                {
                    "bias": "1.50231", 
                    "weights": [
                        "1.01128", 
                        "-0.0160632", 
                        "-0.425872", 
                        "-0.353856", 
                        "-0.570524", 
                        "0.00434106", 
                        "0.0133964", 
                        "-0.689484", 
                        "0.0717078", 
                        "0.644928", 
                        "-1.74327", 
                        "1.18831", 
                        "0.172179", 
                        "-0.176777", 
                        "0.377274", 
                        "-0.333297", 
                        "-0.137824", 
                        "0.986697", 
                        "-0.678335", 
                        "-0.412079", 
                        "0.117097", 
                        "-0.928213", 
                        "-0.0788578", 
                        "3.95574"
                    ], 
                    "id": 17
                }, 
                {
                    "bias": "-0.290065", 
                    "weights": [
                        "-0.000565063", 
                        "-0.183665", 
                        "2.41144", 
                        "1.19826", 
                        "0.614916", 
                        "2.12849", 
                        "0.603978", 
                        "-1.52237", 
                        "0.466302", 
                        "-1.63198", 
                        "-0.152672", 
                        "2.23943", 
                        "0.187618", 
                        "-1.74856", 
                        "-0.619209", 
                        "0.331122", 
                        "-1.11692", 
                        "0.265507", 
                        "-0.24614", 
                        "-2.3507", 
                        "0.453796", 
                        "0.7033", 
                        "0.736651", 
                        "-1.0092"
                    ], 
                    "id": 18
                }, 
                {
                    "bias": "1.00219", 
                    "weights": [
                        "-0.134772", 
                        "0.25526", 
                        "-0.21757", 
                        "0.471253", 
                        "-0.069918", 
                        "-0.414994", 
                        "-0.864514", 
                        "0.015169", 
                        "0.616485", 
                        "0.0897773", 
                        "0.569802", 
                        "-1.17959", 
                        "-4.43372", 
                        "1.272", 
                        "0.116641", 
                        "0.367729", 
                        "-0.603783", 
                        "-0.765853", 
                        "0.711264", 
                        "-0.385208", 
                        "0.352064", 
                        "-0.0272317", 
                        "-0.0982674", 
                        "0.0706562"
                    ], 
                    "id": 19
                }, 
                {
                    "bias": "0.483472", 
                    "weights": [
                        "0.4375", 
                        "0.613356", 
                        "0.480984", 
                        "0.673492", 
                        "0.607351", 
                        "0.475734", 
                        "0.508045", 
                        "0.52127", 
                        "0.348963", 
                        "0.497489", 
                        "0.248362", 
                        "0.319243", 
                        "0.590919", 
                        "0.346096", 
                        "0.233975", 
                        "0.520923", 
                        "0.393637", 
                        "0.412575", 
                        "0.122705", 
                        "0.222688", 
                        "0.678584", 
                        "0.277231", 
                        "0.505364", 
                        "0.526493"
                    ], 
                    "id": 20
                }, 
                {
                    "bias": "1.90982", 
                    "weights": [
                        "-0.447785", 
                        "0.511794", 
                        "0.530579", 
                        "0.196399", 
                        "0.289446", 
                        "-0.267842", 
                        "0.0254678", 
                        "0.61721", 
                        "-0.953868", 
                        "-0.205844", 
                        "0.148631", 
                        "0.0789644", 
                        "-0.0990257", 
                        "0.356325", 
                        "-4.63669", 
                        "-0.677449", 
                        "-0.656287", 
                        "0.21401", 
                        "0.606767", 
                        "1.55088", 
                        "0.279069", 
                        "-0.519569", 
                        "0.121404", 
                        "-0.678819"
                    ], 
                    "id": 21
                }, 
                {
                    "bias": "-0.969992", 
                    "weights": [
                        "-0.0556299", 
                        "0.363629", 
                        "-0.710917", 
                        "-0.0613936", 
                        "-0.00463121", 
                        "0.18786", 
                        "-0.156756", 
                        "-0.120039", 
                        "0.309865", 
                        "0.739784", 
                        "0.295136", 
                        "-0.731112", 
                        "-0.325032", 
                        "0.0314428", 
                        "-0.200151", 
                        "-0.0323438", 
                        "0.236173", 
                        "0.952392", 
                        "-0.270769", 
                        "7.32937", 
                        "0.143666", 
                        "-0.64026", 
                        "0.309707", 
                        "-0.970601"
                    ], 
                    "id": 22
                }, 
                {
                    "bias": "1.53414", 
                    "weights": [
                        "1.78024", 
                        "-1.09501", 
                        "0.76978", 
                        "0.356735", 
                        "0.44385", 
                        "0.850883", 
                        "0.604594", 
                        "-1.04357", 
                        "-0.636546", 
                        "-0.348996", 
                        "-0.0757509", 
                        "-2.34899", 
                        "-0.136354", 
                        "-0.930912", 
                        "-0.843966", 
                        "0.149016", 
                        "0.449583", 
                        "0.121379", 
                        "-0.87741", 
                        "3.16691", 
                        "-1.26623", 
                        "0.529328", 
                        "-0.0686382", 
                        "1.39627"
                    ], 
                    "id": 23
                }, 
                {
                    "bias": "-1.20009", 
                    "weights": [
                        "0.611128", 
                        "-0.333528", 
                        "0.523495", 
                        "0.299533", 
                        "-0.0428932", 
                        "-0.689348", 
                        "0.250631", 
                        "-1.37265", 
                        "-0.770334", 
                        "-0.333868", 
                        "0.679608", 
                        "0.463649", 
                        "0.861805", 
                        "-0.0204977", 
                        "-0.281879", 
                        "-2.44227", 
                        "-0.871055", 
                        "-0.0902409", 
                        "-0.400524", 
                        "6.06999", 
                        "0.29024", 
                        "0.509259", 
                        "-0.466143", 
                        "0.454649"
                    ], 
                    "id": 24
                }, 
                {
                    "bias": "-0.490387", 
                    "weights": [
                        "2.08412", 
                        "0.208076", 
                        "0.20489", 
                        "-0.745691", 
                        "0.523131", 
                        "-0.347992", 
                        "-0.287129", 
                        "0.270793", 
                        "-1.44435", 
                        "-0.710848", 
                        "-1.09665", 
                        "0.377052", 
                        "1.44604", 
                        "1.7519", 
                        "-0.721001", 
                        "-2.89103", 
                        "-1.62683", 
                        "-1.41834", 
                        "1.58309", 
                        "2.25461", 
                        "0.0228891", 
                        "-0.0429579", 
                        "0.827851", 
                        "1.92784"
                    ], 
                    "id": 25
                }, 
                {
                    "bias": "-1.92486", 
                    "weights": [
                        "0.318383", 
                        "1.7285", 
                        "0.192875", 
                        "-1.04024", 
                        "-0.756077", 
                        "1.72853", 
                        "0.152609", 
                        "-0.904509", 
                        "-0.581876", 
                        "1.16711", 
                        "-0.868479", 
                        "0.753487", 
                        "0.658374", 
                        "-0.935277", 
                        "-0.263731", 
                        "0.799311", 
                        "0.537372", 
                        "-1.21257", 
                        "-1.4035", 
                        "2.10152", 
                        "1.57373", 
                        "0.602691", 
                        "0.290742", 
                        "0.293012"
                    ], 
                    "id": 26
                }, 
                {
                    "bias": "0.624978", 
                    "weights": [
                        "0.540348", 
                        "0.0438458", 
                        "0.689852", 
                        "0.649861", 
                        "0.658746", 
                        "0.485703", 
                        "0.318981", 
                        "0.102454", 
                        "0.502582", 
                        "0.860352", 
                        "0.339385", 
                        "0.750256", 
                        "0.593545", 
                        "0.508527", 
                        "0.0888749", 
                        "0.43482", 
                        "0.207337", 
                        "0.479193", 
                        "0.460849", 
                        "0.296073", 
                        "0.190287", 
                        "0.566684", 
                        "0.547054", 
                        "0.675965"
                    ], 
                    "id": 27
                }, 
                {
                    "bias": "1.66255", 
                    "weights": [
                        "-1.29817", 
                        "-0.953416", 
                        "-0.512083", 
                        "-0.131087", 
                        "-0.0774747", 
                        "0.861622", 
                        "-0.05224", 
                        "-0.812641", 
                        "0.196856", 
                        "-0.81417", 
                        "0.365481", 
                        "0.165766", 
                        "0.46502", 
                        "1.30687", 
                        "-0.851283", 
                        "-0.417755", 
                        "0.334831", 
                        "-0.434452", 
                        "1.82041", 
                        "-0.790365", 
                        "0.799981", 
                        "-1.52773", 
                        "-1.22042", 
                        "0.332333"
                    ], 
                    "id": 28
                }, 
                {
                    "bias": "1.81507", 
                    "weights": [
                        "0.226755", 
                        "-0.110846", 
                        "0.133213", 
                        "-0.0691821", 
                        "0.126324", 
                        "0.112345", 
                        "0.0817761", 
                        "0.100074", 
                        "0.103832", 
                        "0.2075", 
                        "-0.132868", 
                        "0.22881", 
                        "-0.138372", 
                        "0.180739", 
                        "-5.617", 
                        "0.182921", 
                        "-0.471541", 
                        "0.86755", 
                        "-0.0625345", 
                        "-0.122946", 
                        "-0.0179525", 
                        "-0.0460012", 
                        "-0.126419", 
                        "0.106217"
                    ], 
                    "id": 29
                }, 
                {
                    "bias": "1.68101", 
                    "weights": [
                        "0.537798", 
                        "-0.0409299", 
                        "0.725878", 
                        "0.713452", 
                        "0.13257", 
                        "1.46002", 
                        "-0.237095", 
                        "-0.635098", 
                        "-0.726541", 
                        "-0.122704", 
                        "0.106968", 
                        "0.878021", 
                        "0.0841476", 
                        "-0.533496", 
                        "-2.69886", 
                        "-0.284644", 
                        "-0.24306", 
                        "-1.05206", 
                        "-0.764231", 
                        "-0.157959", 
                        "-0.720474", 
                        "-0.267003", 
                        "0.255453", 
                        "-0.178576"
                    ], 
                    "id": 30
                }, 
                {
                    "bias": "-0.995077", 
                    "weights": [
                        "0.901163", 
                        "-0.439966", 
                        "-0.71615", 
                        "0.198295", 
                        "1.19533", 
                        "0.16278", 
                        "-0.995811", 
                        "-2.47976", 
                        "-1.63805", 
                        "-0.472739", 
                        "-0.209686", 
                        "1.17275", 
                        "-0.228836", 
                        "0.952258", 
                        "0.968083", 
                        "-0.178187", 
                        "0.971841", 
                        "0.982376", 
                        "1.46958", 
                        "2.5088", 
                        "-0.55758", 
                        "0.116373", 
                        "0.224572", 
                        "0.618592"
                    ], 
                    "id": 31
                }, 
                {
                    "bias": "-0.832379", 
                    "weights": [
                        "0.750641", 
                        "0.0133448", 
                        "0.942652", 
                        "0.865963", 
                        "0.0285084", 
                        "0.221775", 
                        "0.296403", 
                        "-0.169301", 
                        "0.465145", 
                        "0.795448", 
                        "-0.315093", 
                        "-1.2038", 
                        "0.733034", 
                        "-0.346165", 
                        "2.33422", 
                        "-1.65178", 
                        "-2.48721", 
                        "-3.42052", 
                        "-0.919915", 
                        "0.0951488", 
                        "-0.44717", 
                        "0.428712", 
                        "-1.49589", 
                        "-2.68549"
                    ], 
                    "id": 32
                }, 
                {
                    "bias": "0.52663", 
                    "weights": [
                        "0.14942", 
                        "0.342278", 
                        "0.451891", 
                        "0.645358", 
                        "0.935969", 
                        "0.24221", 
                        "0.477793", 
                        "0.97265", 
                        "0.689109", 
                        "0.525344", 
                        "0.164243", 
                        "0.14088", 
                        "0.201115", 
                        "0.565665", 
                        "0.4476", 
                        "0.286001", 
                        "0.335218", 
                        "0.365724", 
                        "0.129501", 
                        "0.164264", 
                        "0.399008", 
                        "0.391108", 
                        "0.27014", 
                        "0.518593"
                    ], 
                    "id": 33
                }, 
                {
                    "bias": "1.22485", 
                    "weights": [
                        "0.624186", 
                        "0.170963", 
                        "0.598041", 
                        "0.392538", 
                        "-1.01199", 
                        "-0.0529944", 
                        "0.119738", 
                        "0.0459787", 
                        "0.581829", 
                        "0.271022", 
                        "0.390368", 
                        "-0.374167", 
                        "-0.136182", 
                        "-5.15443", 
                        "-0.0882931", 
                        "-0.0512184", 
                        "0.577579", 
                        "-1.00149", 
                        "-0.264853", 
                        "0.32007", 
                        "-0.262926", 
                        "0.0455548", 
                        "0.349709", 
                        "-0.246178"
                    ], 
                    "id": 34
                }, 
                {
                    "bias": "-1.33099", 
                    "weights": [
                        "1.0107", 
                        "0.363262", 
                        "-1.01382", 
                        "-1.11275", 
                        "-0.0966583", 
                        "0.0418511", 
                        "-0.254169", 
                        "0.132499", 
                        "-0.17801", 
                        "1.8595", 
                        "-0.189353", 
                        "0.177829", 
                        "0.274158", 
                        "-0.698367", 
                        "-0.408935", 
                        "0.741169", 
                        "-2.81208", 
                        "-0.0980363", 
                        "1.8101", 
                        "3.19408", 
                        "1.44591", 
                        "0.734116", 
                        "0.921447", 
                        "0.998322"
                    ], 
                    "id": 35
                }, 
                {
                    "bias": "-0.248689", 
                    "weights": [
                        "0.419215", 
                        "-0.476569", 
                        "0.57662", 
                        "-0.565118", 
                        "0.237773", 
                        "-0.221434", 
                        "0.740459", 
                        "-0.446872", 
                        "-0.375712", 
                        "-1.00185", 
                        "0.550065", 
                        "5.18377", 
                        "0.30353", 
                        "0.260974", 
                        "-0.504329", 
                        "0.906499", 
                        "0.747291", 
                        "-1.03603", 
                        "-0.0862834", 
                        "-0.208831", 
                        "-0.45154", 
                        "-0.648641", 
                        "0.500634", 
                        "0.0658335"
                    ], 
                    "id": 36
                }, 
                {
                    "bias": "-0.889829", 
                    "weights": [
                        "-0.726526", 
                        "-0.525016", 
                        "1.07238", 
                        "0.491937", 
                        "0.899214", 
                        "-0.764587", 
                        "0.91228", 
                        "-0.609272", 
                        "0.12248", 
                        "-0.359648", 
                        "-0.685619", 
                        "-2.24225", 
                        "0.0936191", 
                        "0.415106", 
                        "0.437719", 
                        "0.0443761", 
                        "-2.88306", 
                        "1.07054", 
                        "0.418735", 
                        "0.332195", 
                        "1.59704", 
                        "0.215897", 
                        "-0.331797", 
                        "-1.77977"
                    ], 
                    "id": 37
                }, 
                {
                    "bias": "0.278028", 
                    "weights": [
                        "-0.774587", 
                        "0.239468", 
                        "0.739964", 
                        "1.43062", 
                        "0.307344", 
                        "-0.124576", 
                        "0.275299", 
                        "-0.468645", 
                        "-0.650517", 
                        "0.437649", 
                        "-0.143344", 
                        "0.544896", 
                        "0.448654", 
                        "-0.308324", 
                        "-0.541217", 
                        "-0.00202511", 
                        "0.733118", 
                        "0.587632", 
                        "0.660909", 
                        "-1.17032", 
                        "-0.29121", 
                        "-0.0958053", 
                        "1.33457", 
                        "-1.12159"
                    ], 
                    "id": 38
                }, 
                {
                    "bias": "1.31103", 
                    "weights": [
                        "-0.020678", 
                        "0.439624", 
                        "-0.214322", 
                        "-0.131999", 
                        "0.0387792", 
                        "0.105143", 
                        "0.265404", 
                        "0.0913031", 
                        "0.176148", 
                        "0.107594", 
                        "-0.111478", 
                        "0.044708", 
                        "-0.0303335", 
                        "0.149269", 
                        "-0.00885184", 
                        "0.188961", 
                        "0.291261", 
                        "-0.456803", 
                        "-7.77548", 
                        "-4.08525", 
                        "0.499188", 
                        "0.479173", 
                        "0.304733", 
                        "-0.0600571"
                    ], 
                    "id": 39
                }, 
                {
                    "bias": "0.0157776", 
                    "weights": [
                        "-0.580636", 
                        "-1.2685", 
                        "-2.33438", 
                        "-1.06229", 
                        "0.18943", 
                        "-0.140631", 
                        "1.19527", 
                        "-0.2917", 
                        "1.23735", 
                        "-0.287046", 
                        "-0.567337", 
                        "-0.936589", 
                        "0.766596", 
                        "1.18788", 
                        "-0.0338406", 
                        "0.57171", 
                        "-0.490173", 
                        "-0.898827", 
                        "-0.543802", 
                        "2.65237", 
                        "0.549758", 
                        "0.76231", 
                        "-0.841621", 
                        "-1.10025"
                    ], 
                    "id": 40
                }, 
                {
                    "bias": "-0.967654", 
                    "weights": [
                        "0.593262", 
                        "-0.18483", 
                        "1.12739", 
                        "0.828684", 
                        "0.0334739", 
                        "0.204159", 
                        "-0.546156", 
                        "0.288021", 
                        "0.367213", 
                        "0.82896", 
                        "0.949639", 
                        "-3.39094", 
                        "-0.514849", 
                        "-0.88551", 
                        "-0.479585", 
                        "-0.440552", 
                        "-0.391578", 
                        "-0.255184", 
                        "-0.366683", 
                        "-0.484091", 
                        "1.78745", 
                        "0.349184", 
                        "0.525457", 
                        "1.05478"
                    ], 
                    "id": 41
                }, 
                {
                    "bias": "0.553148", 
                    "weights": [
                        "0.594576", 
                        "0.269088", 
                        "0.404612", 
                        "0.474291", 
                        "0.835205", 
                        "0.482892", 
                        "0.762659", 
                        "0.325776", 
                        "0.651162", 
                        "0.384472", 
                        "0.512396", 
                        "0.319023", 
                        "0.559497", 
                        "0.623904", 
                        "0.414917", 
                        "0.347545", 
                        "0.0338771", 
                        "-0.0360103", 
                        "-0.132536", 
                        "0.182851", 
                        "0.308036", 
                        "0.445253", 
                        "0.201646", 
                        "0.368673"
                    ], 
                    "id": 42
                }, 
                {
                    "bias": "-1.7924", 
                    "weights": [
                        "-2.23962", 
                        "0.0905997", 
                        "-0.304468", 
                        "0.143006", 
                        "-0.174578", 
                        "0.0565487", 
                        "0.413478", 
                        "0.445216", 
                        "0.406557", 
                        "-0.727045", 
                        "-0.304381", 
                        "2.08729", 
                        "-0.0916758", 
                        "0.135684", 
                        "-0.358663", 
                        "0.35142", 
                        "2.59547", 
                        "4.93614", 
                        "1.14226", 
                        "-0.111923", 
                        "-0.513219", 
                        "-0.381669", 
                        "-0.585563", 
                        "-0.950985"
                    ], 
                    "id": 43
                }, 
                {
                    "bias": "-0.0473009", 
                    "weights": [
                        "-0.0487003", 
                        "0.946443", 
                        "0.147701", 
                        "-0.091325", 
                        "-0.113648", 
                        "-0.81168", 
                        "0.948837", 
                        "-0.381529", 
                        "-0.253509", 
                        "-1.05588", 
                        "0.542165", 
                        "3.69726", 
                        "-0.66377", 
                        "0.792462", 
                        "-1.09573", 
                        "-0.418959", 
                        "0.0264685", 
                        "-0.462147", 
                        "-0.204062", 
                        "0.927991", 
                        "0.484185", 
                        "-0.0283665", 
                        "-0.508652", 
                        "0.677739"
                    ], 
                    "id": 44
                }, 
                {
                    "bias": "-0.215452", 
                    "weights": [
                        "-0.32972", 
                        "0.352125", 
                        "-0.842447", 
                        "0.294514", 
                        "-0.069528", 
                        "0.283877", 
                        "-0.545728", 
                        "-0.176293", 
                        "-0.143066", 
                        "0.307104", 
                        "0.518379", 
                        "0.756691", 
                        "-0.15387", 
                        "-2.66737", 
                        "0.960816", 
                        "2.1493", 
                        "-2.4129", 
                        "-0.910919", 
                        "1.68766", 
                        "5.12496", 
                        "-0.266694", 
                        "-0.134996", 
                        "-0.756114", 
                        "-0.263231"
                    ], 
                    "id": 45
                }, 
                {
                    "bias": "-0.796807", 
                    "weights": [
                        "0.432929", 
                        "1.13164", 
                        "1.09211", 
                        "-0.0147155", 
                        "1.49381", 
                        "-0.0895866", 
                        "-0.020694", 
                        "0.86997", 
                        "-0.773227", 
                        "-0.969243", 
                        "0.466391", 
                        "-0.0877679", 
                        "-1.35795", 
                        "1.61168", 
                        "0.151054", 
                        "-1.80142", 
                        "-1.23885", 
                        "-1.07095", 
                        "1.10662", 
                        "-1.29436", 
                        "0.131918", 
                        "-0.963568", 
                        "0.837906", 
                        "-1.51273"
                    ], 
                    "id": 46
                }, 
                {
                    "bias": "-1.13611", 
                    "weights": [
                        "-1.21505", 
                        "1.31713", 
                        "1.30137", 
                        "1.28476", 
                        "1.01673", 
                        "0.0248966", 
                        "-0.389007", 
                        "-1.20431", 
                        "0.590627", 
                        "0.302853", 
                        "-0.101562", 
                        "0.241667", 
                        "0.507797", 
                        "-0.661609", 
                        "-1.0797", 
                        "-0.583784", 
                        "-2.11914", 
                        "-1.72738", 
                        "0.758776", 
                        "0.381844", 
                        "0.487582", 
                        "-1.67348", 
                        "-0.381687", 
                        "-0.490147"
                    ], 
                    "id": 47
                }, 
                {
                    "bias": "1.77103", 
                    "weights": [
                        "0.828426", 
                        "-0.429628", 
                        "0.183376", 
                        "1.60444", 
                        "-0.290388", 
                        "-0.255405", 
                        "-0.783497", 
                        "-0.637703", 
                        "-1.06768", 
                        "-0.237772", 
                        "1.62376", 
                        "2.50281", 
                        "-0.958787", 
                        "0.348261", 
                        "-0.240102", 
                        "1.10776", 
                        "1.16529", 
                        "-0.450607", 
                        "-1.10795", 
                        "-4.78709", 
                        "-0.150858", 
                        "0.0413231", 
                        "-0.694187", 
                        "0.660175"
                    ], 
                    "id": 48
                }, 
                {
                    "bias": "-1.52886", 
                    "weights": [
                        "-0.24937", 
                        "-0.369534", 
                        "-0.541895", 
                        "0.108331", 
                        "-0.210722", 
                        "0.413307", 
                        "-0.506998", 
                        "0.359733", 
                        "-0.409479", 
                        "-1.0706", 
                        "0.293843", 
                        "-0.054434", 
                        "0.314044", 
                        "-0.524712", 
                        "0.324352", 
                        "-0.147372", 
                        "0.722589", 
                        "2.27433", 
                        "6.18072", 
                        "3.85342", 
                        "-0.455144", 
                        "0.217401", 
                        "0.266828", 
                        "0.549495"
                    ], 
                    "id": 49
                }, 
                {
                    "bias": "1.39287", 
                    "weights": [
                        "-0.67236", 
                        "0.113676", 
                        "-0.557737", 
                        "-0.0936185", 
                        "0.0105973", 
                        "-0.189942", 
                        "-0.782817", 
                        "0.755456", 
                        "-0.177479", 
                        "0.638025", 
                        "0.857029", 
                        "-0.308626", 
                        "0.520491", 
                        "0.259055", 
                        "-0.797986", 
                        "0.314009", 
                        "-0.0669673", 
                        "1.18185", 
                        "0.248876", 
                        "-3.52726", 
                        "-2.69722", 
                        "0.165374", 
                        "-2.00707", 
                        "0.395351"
                    ], 
                    "id": 50
                }
            ]
        }
    ]
}{
    "outputlayer": [
        {
            "neurons": [
                {
                    "bias": "-0.808203", 
                    "weights": [
                        "-4.45306", 
                        "2.55363", 
                        "-1.60209", 
                        "1.71193", 
                        "1.37471", 
                        "1.14878", 
                        "-0.237481", 
                        "-1.24026", 
                        "-0.749236", 
                        "1.11338", 
                        "-5.98353", 
                        "-3.27536", 
                        "-2.8521", 
                        "1.56129", 
                        "-0.0458897", 
                        "-2.88022", 
                        "-4.7606", 
                        "-0.359011", 
                        "-4.79592", 
                        "-0.887791", 
                        "-7.38717", 
                        "0.365591", 
                        "-4.50401", 
                        "-0.742049", 
                        "-1.0276", 
                        "1.2035", 
                        "-1.13302", 
                        "-2.02602", 
                        "-5.58871", 
                        "-3.94709", 
                        "1.18883", 
                        "0.0882222", 
                        "-1.03649", 
                        "-1.96861", 
                        "1.77122", 
                        "0.124545", 
                        "1.39577", 
                        "-1.01005", 
                        "-7.62136", 
                        "1.13452", 
                        "1.6011", 
                        "-1.08157", 
                        "1.68476", 
                        "-0.490745", 
                        "-0.233477", 
                        "0.848104", 
                        "2.10856", 
                        "-1.42153", 
                        "1.87998", 
                        "-5.09649"
                    ], 
                    "id": 1, 
                    "label": "Move-Forward"
                }, 
                {
                    "bias": "-0.37622", 
                    "weights": [
                        "4.09128", 
                        "-2.367", 
                        "-0.370107", 
                        "-1.50555", 
                        "-0.286875", 
                        "-3.38984", 
                        "-2.29424", 
                        "3.98341", 
                        "-3.78788", 
                        "0.584014", 
                        "9.7577", 
                        "5.15317", 
                        "3.05847", 
                        "-0.84743", 
                        "-4.05106", 
                        "6.34889", 
                        "0.860156", 
                        "-3.30629", 
                        "9.00083", 
                        "-0.14879", 
                        "4.99751", 
                        "-0.0769385", 
                        "0.968272", 
                        "0.80975", 
                        "1.49072", 
                        "-0.527729", 
                        "-0.257957", 
                        "3.88208", 
                        "7.57995", 
                        "2.66614", 
                        "-5.85942", 
                        "-3.82949", 
                        "-0.550467", 
                        "5.29101", 
                        "-0.439099", 
                        "-4.09205", 
                        "3.04662", 
                        "-0.0998926", 
                        "-0.429768", 
                        "3.33653", 
                        "-0.79965", 
                        "-0.348839", 
                        "-2.75134", 
                        "-3.39238", 
                        "2.3103", 
                        "-3.74492", 
                        "-2.96117", 
                        "1.03482", 
                        "-1.12656", 
                        "1.54762"
                    ], 
                    "id": 2, 
                    "label": "Sharp-Right-Turn"
                }, 
                {
                    "bias": "-0.766632", 
                    "weights": [
                        "-2.18038", 
                        "-2.37103", 
                        "0.688197", 
                        "-2.43339", 
                        "-0.987926", 
                        "2.27743", 
                        "-7.38866", 
                        "-0.802752", 
                        "-0.488043", 
                        "-0.388716", 
                        "-2.30701", 
                        "-10.606", 
                        "-7.50286", 
                        "-13.2465", 
                        "2.22332", 
                        "1.00449", 
                        "1.60505", 
                        "-1.54965", 
                        "-1.40955", 
                        "-1.00022", 
                        "-1.17477", 
                        "3.06979", 
                        "1.89739", 
                        "3.14438", 
                        "2.03604", 
                        "-1.41222", 
                        "-0.913786", 
                        "-9.11244", 
                        "2.11791", 
                        "0.420143", 
                        "-0.03872", 
                        "-10.4967", 
                        "-0.957617", 
                        "-6.43448", 
                        "-0.0185732", 
                        "1.27927", 
                        "-8.40064", 
                        "-1.68063", 
                        "-7.60112", 
                        "-4.96052", 
                        "-1.8155", 
                        "-0.991172", 
                        "1.05801", 
                        "1.13567", 
                        "1.21937", 
                        "0.826108", 
                        "-6.03344", 
                        "-3.98101", 
                        "-0.416316", 
                        "-21.2609"
                    ], 
                    "id": 3, 
                    "label": "Slight-Left-Turn"
                }, 
                {
                    "bias": "-0.152688", 
                    "weights": [
                        "1.3445", 
                        "-1.49605", 
                        "-0.388825", 
                        "-1.15763", 
                        "-2.64691", 
                        "-0.466225", 
                        "3.11567", 
                        "-5.71266", 
                        "1.90895", 
                        "-4.36894", 
                        "-7.39566", 
                        "-2.54421", 
                        "0.36096", 
                        "0.132703", 
                        "0.440513", 
                        "-8.75949", 
                        "2.20133", 
                        "2.5919", 
                        "-4.67227", 
                        "-0.338195", 
                        "4.10021", 
                        "-4.34068", 
                        "2.11024", 
                        "-5.71305", 
                        "-5.30867", 
                        "-2.8895", 
                        "-0.485357", 
                        "-0.226639", 
                        "-5.67032", 
                        "1.6309", 
                        "0.646263", 
                        "2.95681", 
                        "-0.0970684", 
                        "-3.61378", 
                        "-3.80683", 
                        "0.731499", 
                        "-3.91066", 
                        "-0.0899366", 
                        "8.11671", 
                        "-5.83682", 
                        "-3.08699", 
                        "-0.270434", 
                        "-2.46836", 
                        "1.99088", 
                        "-4.76091", 
                        "1.00404", 
                        "-0.152177", 
                        "1.89139", 
                        "-3.63657", 
                        "4.26578"
                    ], 
                    "id": 4, 
                    "label": "Slight-Right-Turn"
                }
            ]
        }
    ]
}